#ifndef WEIGHTS_H
#define WEIGHTS_H

// GENERATED MODEL DATA ----------------------------------------------------------------------
// Lab 9 8x8x8 GRU candidate generated by Kirk based on Python training script
#include "Arduino.h"
#define ECG_CLASSIFIER_GRU_LAYER_COUNT 3

constexpr int hidden_size1=8;
constexpr int input_size1=3;
const float Wr1[88] = {-0.17633,0.07394,0.37250,0.37680,0.13272,-0.31670,0.15982,0.02089,-0.64389,-0.19643,-0.31885,-0.60342,-0.01402,0.18092,0.93858,0.62198,-0.53416,-0.22127,0.74211,-0.22072,-0.19405,-0.29691,-0.04262,0.15805,-0.81134,-0.96463,-0.61938,0.20406,-0.28349,-0.29488,0.07745,0.58521,-0.03790,-0.69450,-0.13258,0.19432,-0.39290,0.61555,-1.93065,0.31743,0.12802,-0.36110,0.45683,0.20346,0.51584,0.43378,0.01436,1.32855,0.18672,-2.03094,0.47273,0.84613,0.27361,0.66391,-0.72398,0.65741,-0.36783,-0.61116,-0.24168,0.15233,-0.39981,-0.00093,0.51286,1.49097,-0.05309,0.14301,0.57350,0.09412,-0.72937,0.36241,1.03049,-0.48531,0.30054,-0.08429,0.39804,0.03981,0.10663,-0.08147,-0.11580,0.22047,-0.93600,-0.50529,-0.72438,0.18478,-0.49225,-0.72644,0.10069,-0.01564};
const float Wz1[88] = {0.43649,0.28004,0.83727,0.10846,0.39326,0.02397,0.38406,0.43358,-0.07361,1.17670,1.08330,-0.27478,-0.33896,0.47226,0.64261,-0.57175,-1.06361,-0.35696,0.57416,-0.98209,0.02554,-0.38184,-0.27643,-0.48941,1.16289,0.22897,0.59944,-0.29324,-0.20503,-0.55310,0.08292,0.02850,0.55267,0.23929,0.06075,-0.72009,-0.08994,-0.19864,0.45074,-0.24870,0.25830,-0.04446,-0.00140,-0.48613,-0.18541,-0.09799,-0.60220,-1.08563,0.51662,-0.55165,-0.39464,0.18396,0.23860,0.94478,-0.22580,-0.46169,0.62007,-0.63431,-0.91002,0.27626,-0.50697,0.27769,-0.74861,-0.09416,-2.15048,-0.78107,0.24835,0.21786,0.06610,-0.39780,0.21765,-0.07394,0.24356,0.11368,0.22302,-1.34116,-0.43477,0.64867,0.02307,0.09218,0.67667,0.47827,-0.34407,0.00995,0.39465,-0.32668,0.71590,-0.36755};
const float Wh1[88] = {-0.19209,0.07521,0.60449,0.32184,-0.45299,-0.22095,-0.29066,0.51523,-0.10025,0.08594,-0.30885,0.34860,-0.01680,0.29803,0.55609,0.35110,-0.22697,-0.35382,0.13365,-0.13232,-0.75002,-0.11641,-0.24167,-0.13464,-0.40819,0.83380,-0.17609,0.53719,0.56116,0.10069,-0.19119,0.51668,0.61163,-0.09340,0.09329,0.33643,0.21831,0.18538,-0.45755,0.48140,0.75989,-0.29198,0.25742,-0.00531,0.24251,-0.15305,0.39539,0.34373,-0.42053,-0.20955,-0.06725,0.76538,-0.36063,-0.46878,-0.50558,0.46608,0.21150,-0.37735,-0.27013,0.23596,-0.57640,-0.12143,0.64536,0.91512,0.24074,0.10118,0.86813,-0.24844,-0.40436,-0.16075,0.38780,-0.40329,0.27745,0.25307,-0.16576,0.37740,0.53113,0.09445,-0.04413,0.34453,0.20775,0.17995,0.30600,0.28738,-0.09164,-0.07863,0.45677,0.33720};
const float br1[8] = {0.56989,0.93701,0.30411,-0.14526,1.00798,-0.38693,0.14261,-0.19510};
const float bz1[8] = {-0.02908,0.70160,0.06023,0.22482,0.68286,-0.55713,0.54291,0.43385};
const float bh1[8] = {0.26727,-0.05260,-0.08276,-0.17268,-0.03493,-0.38271,0.23936,0.12556};
constexpr int hidden_size2=8;
constexpr int input_size2=8;
const float Wr2[128] = {0.29817,0.54092,-0.19635,0.41003,0.23172,-0.54242,0.30478,0.46317,-0.15289,-0.36113,-0.18871,-0.53139,-0.56055,0.53581,0.16331,-0.32166,0.60890,-0.54948,-0.28708,0.21582,0.28883,-0.15082,-0.34276,0.63852,0.04666,-0.48016,0.18927,-0.58163,-0.08392,0.64442,-0.31589,0.08580,0.46907,0.36717,-0.43069,0.00385,0.44370,0.23026,0.43915,0.29593,0.27812,0.69775,-1.12292,-0.37491,0.12662,0.12534,-0.75693,0.69128,0.35995,-0.83946,0.27432,0.15054,0.22276,-0.48036,-0.22487,0.27238,0.31844,-0.56795,0.56311,0.45496,-0.14467,-0.24055,0.41234,-0.10916,-0.22359,0.13025,-0.15469,-0.09550,0.29674,0.47421,0.17357,-0.15584,0.16556,-0.60527,0.13689,-0.52496,-0.86018,0.15234,-0.71445,0.36911,-0.42380,0.53618,-0.06898,-0.07697,0.06351,-0.01445,0.66339,-0.36287,0.52005,-0.30777,-0.28952,0.11487,-0.04822,0.93106,-0.23647,0.05792,0.18704,-0.04378,0.13083,-0.17398,0.12523,0.29634,0.39111,-0.24199,0.42366,0.20201,-0.29971,-0.08362,0.20976,0.39925,-0.10735,0.31007,0.56406,-0.03287,-0.55603,0.09465,0.38463,-0.14391,0.05565,0.71025,0.09962,-0.84193,0.22942,-0.59595,-0.30983,-0.00558,-1.11119,0.25652};
const float Wz2[128] = {-0.14175,-0.57852,0.23454,-0.38116,0.18736,-0.31387,0.07280,-0.16722,-0.00587,-0.91859,0.10458,0.38924,0.02390,-0.24551,0.01454,-0.38632,0.17628,-0.24962,0.65968,-0.26305,0.07394,0.00146,-0.34744,0.35352,0.46645,0.49229,1.38298,-0.52959,-0.05351,-0.11691,-0.01198,-0.36659,-0.28528,0.40131,-0.74269,0.18326,0.56546,1.03647,1.29082,0.20403,0.88625,-0.93510,0.44478,-0.89101,-0.62213,0.50137,0.18587,0.75499,-0.77609,0.13347,0.16847,0.01241,-0.72409,0.44550,-0.07788,-0.98911,-0.06700,0.01149,0.82849,-0.10266,-0.18550,0.21817,-0.20787,-0.31703,0.08452,-0.47192,-0.02341,-0.24951,0.08453,-0.37300,-0.69472,-0.34634,0.32498,0.35902,-1.59050,0.86319,-0.33406,0.35735,0.39246,-1.40265,0.51543,0.61185,-0.51642,-0.02208,0.41273,-0.32320,0.50282,-0.20909,-0.56914,-0.21597,-0.03804,-0.54269,-0.42647,-0.38890,0.25482,0.78648,0.14194,-0.11659,0.26540,0.36317,-0.28642,0.87965,-0.69518,0.62215,0.76303,-0.29179,1.12137,-0.13322,-1.24832,0.28189,0.36977,-0.29344,1.11819,0.35683,-0.40367,1.03873,0.66472,-0.06114,-0.56560,0.09921,0.91974,-0.49065,-0.49536,-0.05550,-0.98969,0.28839,0.91808,-0.21892};
const float Wh2[128] = {-0.19894,-0.09505,-0.01944,0.22665,-0.48691,0.23074,0.27589,0.05229,0.71663,-0.02147,0.20586,-0.35281,0.24680,-0.52063,0.40196,0.40269,-0.53192,-0.08386,-0.31514,0.42134,0.19846,-0.29941,0.41911,-0.11581,-0.17148,0.52626,-0.30595,-0.33827,0.07765,-0.56296,-0.01013,0.06944,0.13336,0.12334,-0.04498,0.41980,0.02296,0.39078,-0.53923,0.02003,-0.29073,-0.23233,0.75658,0.32938,0.79134,-0.19017,-0.24590,0.42957,-0.04062,-0.35973,-0.07249,-0.46783,-0.32719,0.17540,-0.25116,-0.20309,0.00928,0.44510,-0.41544,0.30307,0.41907,0.15088,-0.08839,0.29402,0.36235,0.03177,-0.27747,0.00456,-0.25900,-0.41750,0.50366,0.16098,-0.76584,-0.10252,-0.52138,0.15009,0.77441,-0.25049,-0.02496,0.22400,-0.06593,0.49496,0.02000,0.29274,-0.33398,0.30019,0.23906,0.15352,0.50328,0.07497,0.34006,0.05299,-0.52057,0.39088,0.25816,-0.25870,-0.04758,0.50984,-0.31302,0.13622,-0.30499,-0.45958,-0.18237,-0.31146,0.68263,0.23746,-0.23804,-0.05168,0.42209,-0.18954,0.50089,-0.03777,-0.19348,-0.27539,-0.56726,-0.39339,0.22057,0.18370,0.46172,-0.40565,-0.28470,-0.49504,0.30453,-0.20343,0.45615,-0.03127,-0.08846,0.39207};
const float br2[8] = {1.27805,0.78282,0.71622,0.41451,1.45258,0.65691,-0.02304,0.29588};
const float bz2[8] = {0.35562,-0.18221,1.13251,-0.13266,0.07655,0.56998,-0.34329,0.47380};
const float bh2[8] = {0.14871,-0.27100,0.24471,0.08981,-0.29718,0.31766,-0.05104,-0.12852};
constexpr int hidden_size3=8;
constexpr int input_size3=8;
const float Wr3[128] = {0.43182,-0.80072,-0.18347,-0.11281,-0.20007,-0.12161,-0.31503,0.66617,0.14722,-0.13873,-0.08759,-0.14188,0.29874,0.22166,-0.35548,-0.01103,-0.25945,-0.23602,-0.31229,-0.23982,0.11922,0.04648,-0.77917,0.52800,-0.31941,-0.10149,0.12839,0.08031,0.35225,-0.19228,-0.42996,-0.09657,0.49854,-0.00784,0.14763,0.11322,0.42445,0.10396,-0.47520,-0.12593,-0.07689,0.41858,-0.01500,0.11473,0.00929,-0.27577,-0.03629,0.07991,-0.05844,-0.23755,-0.43790,-0.23502,-0.08977,-0.30211,0.48302,1.05048,-0.27251,-0.47890,0.77101,-0.53394,-0.15445,0.49057,0.06500,0.22221,0.15074,0.33235,-0.02760,-0.37048,0.10219,-0.17633,0.05846,-0.04759,-0.40785,-0.15125,0.70428,-0.50691,0.42136,0.18100,-0.32921,0.33142,0.14566,0.23323,0.58635,0.17770,0.03870,-0.11702,0.10938,-0.50745,-0.03635,0.26462,-0.03572,-1.09663,-0.07410,-0.03876,0.06128,0.29388,0.41054,-0.08258,-0.71042,-0.44809,-0.16908,-0.40439,-0.37190,-0.61455,0.06987,0.52162,0.16389,-0.51106,-0.59544,1.14082,-0.10577,1.00195,0.29190,0.40730,-0.01390,-0.40800,-0.46547,0.10867,-0.76416,0.48401,-0.43246,-0.23138,0.06749,-0.60822,0.22557,-0.10823,0.09312,-0.12238};
const float Wz3[128] = {0.14960,-0.50768,1.35945,-0.80238,-0.50119,0.51036,-0.26822,0.51811,-1.15971,-0.33858,-0.10362,0.12469,0.23013,-0.28735,1.39874,0.31705,-0.28368,-0.16069,0.06726,-0.76506,-0.11740,0.45952,0.25697,-0.25047,-1.21185,0.59404,-0.25606,-0.86331,-1.92189,0.62759,1.97873,0.62172,-0.51935,-0.70511,0.56252,-0.26088,-0.71501,0.78032,-0.66629,0.21085,-1.37610,0.79361,-0.13243,0.09758,-0.55676,1.39526,0.55081,1.34532,-0.51961,0.74635,-0.65648,-1.02910,0.52570,0.91479,0.59708,-0.94069,0.22696,-1.36671,1.19655,0.27422,0.19807,-0.24284,-0.27969,0.45540,0.13669,-0.67154,1.63654,0.49606,-1.31746,0.40903,-1.12912,-1.71083,-0.55089,1.36189,0.02884,-0.10980,-1.81790,0.21977,0.79001,1.49789,-0.06866,-0.98886,0.52846,0.31544,-0.93559,-0.61882,-0.74680,-1.07422,-0.88622,0.19702,-0.60667,0.82359,-0.06500,0.43719,0.13318,0.37253,0.39333,-0.25093,0.59947,-0.10025,-0.58432,-0.54050,0.01639,1.42081,-0.18944,0.43446,-0.58904,-0.50685,-0.93181,0.44615,0.28740,1.24002,-0.34207,-1.56683,0.57076,1.23050,-0.50223,-0.14168,-1.95111,0.30379,-0.55531,0.86105,-0.02724,0.00668,-0.50699,1.02284,0.53325,1.29776};
const float Wh3[128] = {-0.02467,0.13194,-0.55467,0.11871,-0.29008,0.36053,0.07233,0.13657,-0.09824,-1.03456,0.47858,-0.22165,-0.14482,-0.16576,-0.10280,0.58688,0.26326,-0.27487,-0.08914,0.29587,0.06699,-0.00307,0.28767,-0.03140,-0.27000,0.56543,-0.56425,-0.26321,-0.11269,-0.45210,-0.34306,-0.54030,0.05225,0.14948,-0.13205,-0.29167,0.17545,-0.15767,0.51585,0.22401,0.10039,-0.18503,0.54741,0.48531,-0.02779,0.35236,-0.04298,0.62350,0.02217,-0.20769,0.21318,-0.11459,-0.03610,-0.03763,-0.19675,-0.22316,0.09247,0.15709,-0.36061,-0.03508,0.99107,-0.28195,0.26967,-0.84381,-0.20247,-0.36665,0.05435,0.14783,-0.00102,0.41312,0.03134,-0.15215,-0.06903,0.63734,-0.70689,-0.57350,0.21680,-0.75175,0.00325,-0.01192,0.55569,-0.18863,-0.06880,0.13432,-0.32149,-0.43724,0.25009,0.02946,0.37294,-0.50148,0.15999,0.54741,-0.51999,0.38225,-0.25607,-0.17467,0.60271,0.60580,0.16714,-0.21309,-0.20415,0.26616,-0.59993,-0.21762,-0.72408,1.50438,-0.41461,-0.07571,0.23132,-0.43657,0.79362,-0.29408,0.58789,0.27992,0.08708,-0.11356,0.14822,-0.48334,0.27026,0.17549,-0.16182,-0.00940,0.03125,-0.05063,-0.49791,1.02589,-0.43170,0.16231};
const float br3[8] = {0.65379,1.16270,0.58113,0.48085,1.72775,0.92804,0.84222,0.83859};
const float bz3[8] = {0.69826,2.11234,2.72879,-0.16850,0.28650,0.94478,0.21577,1.24374};
const float bh3[8] = {-0.43164,-0.05228,0.11588,-0.06143,0.09430,0.21988,0.18199,0.10567};
constexpr int input_size4=8;
constexpr int output_size4=2;
const float W4[16] = {-0.16000,0.81253,-0.86548,0.41815,0.69220,-0.65712,0.27525,-0.27371,0.64421,-0.90443,1.07085,-0.51004,-0.69295,0.50731,-0.21584,0.66615};
const float b4[2] = {0.19472,-0.09308};
const float mu[3] = {6.56996,1.14645,0.35713};
const float sg[3] = {4.59894,0.30960,0.16292};
#endif
